svm_type c_svc
kernel_type rbf
gamma 0
nr_class 2
total_sv 220
rho -1
label 1 -1
nr_sv 110 110
SV
1 0:0.6 0:0.1 0:272 0:24 0:98 0:5 0:2 0:0.6 
1 0:0.7 0:0.1 0:1630 0:74 0:149 0:5.3 0:2 0:0.6 
1 0:12.7 0:6.2 0:194 0:2000 0:2946 0:5.7 0:3.3 0:1.3 
1 0:15.9 0:7 0:280 0:1350 0:1600 0:5.6 0:2.8 0:1 
1 0:18 0:8.2 0:298 0:1250 0:1050 0:5.4 0:2.6 0:0.9 
1 0:23 0:11.3 0:300 0:482 0:275 0:7.1 0:3.5 0:0.9 
1 0:22.7 0:10.2 0:290 0:322 0:113 0:6.6 0:2.8 0:0.7 
1 0:0.8 0:0.2 0:178 0:17 0:18 0:6.3 0:3.1 0:0.9 
1 0:5.8 0:2.5 0:802 0:133 0:88 0:6 0:2.8 0:0.8 
1 0:3 0:1.4 0:248 0:46 0:40 0:6.5 0:3.2 0:0.9 
1 0:1.7 0:0.8 0:1896 0:61 0:83 0:8 0:3.9 0:0.95 
1 0:2.8 0:1.7 0:263 0:57 0:65 0:5.1 0:2.3 0:0.8 
1 0:3.2 0:1.4 0:512 0:50 0:58 0:6 0:2.7 0:0.8 
1 0:0.9 0:0.4 0:238 0:17 0:14 0:6.6 0:2.9 0:0.8 
1 0:1.8 0:0.7 0:178 0:35 0:36 0:6.8 0:3.6 0:1.1 
1 0:11.3 0:5.6 0:1110 0:1250 0:4929 0:7 0:2.4 0:0.5 
1 0:4.7 0:2.2 0:310 0:62 0:90 0:6.4 0:2.5 0:0.6 
1 0:0.8 0:0.2 0:282 0:72 0:140 0:5.5 0:2.5 0:0.8 
1 0:0.8 0:0.2 0:282 0:72 0:140 0:5.5 0:2.5 0:0.8 
1 0:0.8 0:0.2 0:380 0:25 0:66 0:6.1 0:3.7 0:1.5 
1 0:4.2 0:2.1 0:159 0:15 0:30 0:7.1 0:2.2 0:0.4 
1 0:1.6 0:0.4 0:332 0:84 0:139 0:5.6 0:2.7 0:0.9 
1 0:1.6 0:0.4 0:332 0:84 0:139 0:5.6 0:2.7 0:0.9 
1 0:3.5 0:1.5 0:189 0:63 0:87 0:5.6 0:2.9 0:1 
1 0:2.9 0:1.3 0:168 0:21 0:38 0:5.5 0:1.8 0:0.4 
1 0:0.7 0:0.1 0:392 0:20 0:30 0:5.3 0:2.8 0:1.1 
1 0:0.9 0:0.2 0:202 0:20 0:26 0:7.2 0:4.5 0:1.66 
1 0:0.8 0:0.2 0:286 0:21 0:27 0:7.1 0:4 0:1.2 
1 0:1.6 0:0.8 0:218 0:18 0:20 0:5.9 0:2.9 0:0.96 
1 0:0.8 0:0.2 0:182 0:20 0:40 0:6 0:2.9 0:0.9 
1 0:5.9 0:2.5 0:290 0:45 0:233 0:5.6 0:2.7 0:0.9 
1 0:8.7 0:4 0:298 0:58 0:138 0:5.8 0:2.4 0:0.7 
1 0:0.9 0:0.3 0:462 0:70 0:82 0:6.2 0:3.1 0:1 
1 0:0.7 0:0.1 0:196 0:20 0:35 0:5.8 0:2 0:0.5 
1 0:0.7 0:0.1 0:196 0:20 0:35 0:5.8 0:2 0:0.5 
1 0:1.2 0:0.4 0:282 0:36 0:32 0:7.2 0:3.9 0:1.1 
1 0:11 0:4.9 0:750 0:140 0:350 0:5.5 0:2.1 0:0.6 
1 0:11.5 0:5 0:1050 0:99 0:187 0:6.2 0:2.8 0:0.8 
1 0:5.8 0:2.7 0:599 0:43 0:66 0:5.4 0:1.8 0:0.5 
1 0:1.9 0:0.9 0:180 0:42 0:62 0:7.4 0:4.3 0:1.38 
1 0:1.9 0:0.9 0:180 0:42 0:62 0:7.4 0:4.3 0:1.38 
1 0:4.5 0:2.3 0:282 0:13 0:74 0:7 0:2.4 0:0.52 
1 0:75 0:3.6 0:332 0:40 0:66 0:6.2 0:2.5 0:0.6 
1 0:3 0:1.5 0:292 0:64 0:67 0:5.6 0:1.8 0:0.47 
1 0:22.8 0:12.6 0:962 0:53 0:41 0:6.9 0:3.3 0:0.9 
1 0:8.9 0:4 0:950 0:33 0:32 0:6.8 0:3.1 0:0.8 
1 0:1.7 0:0.8 0:200 0:28 0:37 0:6.2 0:3 0:0.93 
1 0:1.9 0:0.6 0:298 0:378 0:602 0:6.6 0:3.3 0:1 
1 0:14.1 0:7.6 0:750 0:35 0:63 0:5 0:1.6 0:0.47 
1 0:0.6 0:0.1 0:175 0:48 0:34 0:6 0:3.7 0:1.6 
1 0:0.6 0:0.1 0:175 0:48 0:34 0:6 0:3.7 0:1.6 
1 0:0.8 0:0.2 0:198 0:43 0:31 0:7.3 0:4 0:1.2 
1 0:0.8 0:0.2 0:482 0:112 0:99 0:5.7 0:2.6 0:0.8 
1 0:14.8 0:9 0:1020 0:71 0:42 0:5.3 0:2.2 0:0.7 
1 0:10.6 0:5 0:562 0:37 0:29 0:5.1 0:1.8 0:0.5 
1 0:8 0:4.6 0:386 0:30 0:25 0:5.5 0:1.8 0:0.48 
1 0:2.8 0:1.3 0:250 0:23 0:29 0:2.7 0:0.9 0:0.5 
1 0:2.9 0:1.3 0:218 0:33 0:37 0:3 0:1.5 0:1 
1 0:0.6 0:0.1 0:171 0:20 0:17 0:5.4 0:2.5 0:0.8 
1 0:1.1 0:0.4 0:201 0:18 0:19 0:6.9 0:4.1 0:1.4 
1 0:3.2 0:1.8 0:750 0:79 0:145 0:7.8 0:3.2 0:0.69 
1 0:2.1 0:1 0:191 0:114 0:247 0:4 0:1.6 0:0.6 
1 0:1.9 0:0.8 0:614 0:42 0:38 0:4.5 0:1.8 0:0.6 
1 0:6.3 0:3.2 0:314 0:118 0:114 0:6.6 0:3.7 0:1.27 
1 0:5.8 0:3 0:257 0:107 0:104 0:6.6 0:3.5 0:1.12 
1 0:2.3 0:0.6 0:272 0:79 0:51 0:6.6 0:3.5 0:1.1 
1 0:2.4 0:1 0:1124 0:30 0:54 0:5.2 0:1.9 0:0.5 
1 0:2 0:1.1 0:664 0:52 0:104 0:6 0:2.1 0:0.53 
1 0:0.6 0:0.2 0:142 0:12 0:32 0:5.7 0:2.4 0:0.75 
1 0:27.2 0:11.8 0:1420 0:790 0:1050 0:6.1 0:2 0:0.4 
1 0:0.6 0:0.1 0:218 0:50 0:53 0:5 0:2.4 0:0.9 
1 0:0.6 0:0.1 0:218 0:50 0:53 0:5 0:2.4 0:0.9 
1 0:2.5 0:1.2 0:163 0:28 0:22 0:7.6 0:4 0:1.1 
1 0:3.6 0:1.8 0:285 0:50 0:60 0:7 0:2.9 0:0.7 
1 0:3.9 0:1.7 0:350 0:950 0:1500 0:6.7 0:3.8 0:1.3 
1 0:0.9 0:0.3 0:220 0:53 0:95 0:6.1 0:2.8 0:0.68 
1 0:0.9 0:0.3 0:189 0:23 0:33 0:6.6 0:3.9 0:0.68 
1 0:0.8 0:0.3 0:190 0:20 0:14 0:4.1 0:2.4 0:1.4 
1 0:2.7 0:1.3 0:219 0:60 0:180 0:7 0:3.2 0:0.8 
1 0:0.9 0:0.2 0:401 0:25 0:58 0:7.5 0:3.4 0:0.8 
1 0:1.7 0:1 0:180 0:18 0:34 0:7.2 0:3.6 0:1 
1 0:1.1 0:0.5 0:159 0:30 0:31 0:7 0:4.3 0:1.5 
1 0:0.6 0:0.2 0:290 0:26 0:21 0:6 0:3 0:1 
1 0:0.8 0:0.1 0:282 0:85 0:231 0:8.5 0:4.3 0:1 
1 0:0.9 0:0.3 0:158 0:20 0:16 0:8 0:4 0:1 
1 0:0.9 0:0.3 0:196 0:69 0:48 0:6.8 0:3.1 0:0.8 
1 0:0.8 0:0.2 0:230 0:24 0:46 0:6.5 0:3.1 0:1 
1 0:0.8 0:0.2 0:205 0:30 0:23 0:8.2 0:4.1 0:1 
1 0:0.9 0:0.2 0:316 0:25 0:23 0:8.5 0:5.5 0:1.8 
1 0:0.8 0:0.2 0:218 0:20 0:19 0:6.3 0:2.5 0:0.6 
1 0:0.9 0:0.2 0:290 0:15 0:18 0:6.1 0:2.8 0:0.8 
1 0:30.5 0:14.2 0:285 0:65 0:130 0:5.2 0:2.1 0:0.6 
1 0:16.4 0:8.9 0:245 0:56 0:87 0:5.4 0:2 0:0.5 
1 0:1.5 0:7 0:505 0:205 0:140 0:7.5 0:3.9 0:1 
1 0:0.8 0:0.2 0:228 0:55 0:54 0:6.9 0:4 0:1.3 
1 0:0.8 0:0.2 0:185 0:25 0:21 0:7 0:3 0:0.7 
1 0:1.2 0:0.4 0:195 0:38 0:54 0:6.3 0:3.8 0:1.5 
1 0:0.9 0:0.3 0:140 0:12 0:29 0:7.4 0:3.5 0:1.8 
1 0:14.5 0:6.4 0:358 0:50 0:75 0:5.7 0:2.1 0:0.5 
1 0:0.6 0:0.1 0:110 0:15 0:20 0:2.8 0:1.6 0:1.3 
1 0:0.7 0:0.2 0:235 0:96 0:54 0:9.5 0:4.9 0:1 
1 0:18.5 0:9.5 0:380 0:390 0:500 0:8.2 0:4.1 0:1 
1 0:0.7 0:0.2 0:262 0:15 0:18 0:9.6 0:4.7 0:1.2 
1 0:1.8 0:0.8 0:196 0:25 0:22 0:8 0:4 0:1 
1 0:2 0:0.8 0:190 0:45 0:40 0:6 0:2.8 0:0.8 
1 0:2.2 0:0.8 0:209 0:25 0:20 0:8 0:4 0:1 
1 0:1 0:1.4 0:144 0:18 0:14 0:8.3 0:4.2 0:1 
1 0:0.8 0:0.2 0:123 0:56 0:48 0:6 0:3 0:1 
1 0:0.7 0:0.2 0:188 0:12 0:14 0:7 0:3.4 0:0.9 
1 0:0.9 0:0.3 0:300 0:30 0:48 0:8 0:4 0:1 
-1 0:0.9 0:0.3 0:202 0:22 0:19 0:7.4 0:4.1 0:1.2 
-1 0:0.9 0:0.3 0:310 0:61 0:58 0:7 0:3.4 0:0.9 
-1 0:0.6 0:0.1 0:183 0:91 0:53 0:5.5 0:2.3 0:0.7 
-1 0:1.6 0:0.5 0:165 0:15 0:23 0:7.3 0:3.5 0:0.92 
-1 0:0.9 0:0.2 0:194 0:52 0:45 0:6 0:3.9 0:1.85 
-1 0:1.1 0:0.5 0:128 0:20 0:30 0:3.9 0:1.9 0:0.95 
-1 0:0.7 0:0.2 0:188 0:13 0:21 0:6 0:3.2 0:1.1 
-1 0:1 0:0.3 0:187 0:19 0:23 0:5.2 0:2.9 0:1.2 
-1 0:2.6 0:1.2 0:410 0:59 0:57 0:5.6 0:3 0:0.8 
-1 0:2.6 0:1.2 0:410 0:59 0:57 0:5.6 0:3 0:0.8 
-1 0:0.7 0:0.2 0:145 0:18 0:36 0:7.2 0:3.9 0:1.18 
-1 0:0.6 0:0.1 0:160 0:42 0:110 0:4.9 0:2.6 0:1.1 
-1 0:6.8 0:3.2 0:630 0:25 0:47 0:6.1 0:2.3 0:0.6 
-1 0:1 0:0.3 0:208 0:17 0:15 0:7 0:3.6 0:1 
-1 0:1.8 0:0.6 0:275 0:48 0:178 0:6.5 0:3.2 0:0.9 
-1 0:0.8 0:0.2 0:198 0:26 0:23 0:8 0:4 0:1 
-1 0:0.9 0:0.2 0:175 0:24 0:54 0:5.5 0:2.7 0:0.9 
-1 0:1.1 0:0.5 0:145 0:20 0:24 0:5.5 0:3.2 0:1.39 
-1 0:0.8 0:0.2 0:215 0:24 0:17 0:6.3 0:3 0:0.9 
-1 0:0.7 0:0.1 0:162 0:52 0:41 0:5.2 0:2.5 0:0.9 
-1 0:1.4 0:0.6 0:146 0:12 0:24 0:6.2 0:3.8 0:1.58 
-1 0:0.7 0:0.1 0:148 0:14 0:12 0:5.4 0:2.8 0:1 
-1 0:0.6 0:0.1 0:320 0:28 0:56 0:7.2 0:3.6 0:1 
-1 0:0.6 0:0.2 0:161 0:27 0:28 0:3.7 0:1.6 0:0.76 
-1 0:0.7 0:0.2 0:243 0:21 0:23 0:5.3 0:2.3 0:0.7 
-1 0:0.8 0:0.2 0:225 0:14 0:23 0:6.1 0:3.3 0:1.2 
-1 0:5.3 0:2.3 0:145 0:32 0:92 0:5.1 0:2.6 0:1 
-1 0:5.3 0:2.3 0:145 0:32 0:92 0:5.1 0:2.6 0:1 
-1 0:0.8 0:0.2 0:158 0:29 0:39 0:6 0:2.2 0:0.5 
-1 0:0.8 0:0.2 0:158 0:29 0:39 0:6 0:2.2 0:0.5 
-1 0:0.9 0:0.1 0:486 0:25 0:34 0:5.9 0:2.8 0:0.9 
-1 0:0.7 0:0.2 0:188 0:11 0:10 0:5.5 0:2.3 0:0.71 
-1 0:1.2 0:0.4 0:179 0:63 0:39 0:6.1 0:3.3 0:1.1 
-1 0:5.8 0:3 0:661 0:181 0:285 0:5.7 0:2.3 0:0.67 
-1 0:7.3 0:3.6 0:1580 0:88 0:64 0:5.6 0:2.3 0:0.6 
-1 0:1.7 0:0.8 0:188 0:60 0:84 0:5.9 0:3.5 0:1.4 
-1 0:0.6 0:0.1 0:177 0:36 0:29 0:6.9 0:4.1 0:1.4 
-1 0:1.8 0:0.5 0:201 0:45 0:25 0:3.9 0:1.7 0:0.7 
-1 0:0.7 0:0.2 0:237 0:18 0:28 0:5.8 0:2.5 0:0.75 
-1 0:0.8 0:0.2 0:199 0:34 0:31 0:6.5 0:3.5 0:1.16 
-1 0:0.6 0:0.1 0:186 0:20 0:21 0:6.2 0:3.3 0:1.1 
-1 0:0.8 0:0.2 0:201 0:18 0:22 0:5.4 0:2.9 0:1.1 
-1 0:1.1 0:0.5 0:180 0:30 0:42 0:6.9 0:3.8 0:1.2 
-1 0:0.6 0:0.1 0:178 0:26 0:27 0:6.5 0:3.6 0:1.2 
-1 0:1.9 0:0.8 0:170 0:36 0:43 0:3.8 0:1.4 0:0.58 
-1 0:1.5 0:0.4 0:298 0:60 0:103 0:6 0:3 0:1 
-1 0:0.8 0:0.2 0:218 0:32 0:28 0:5.2 0:2.5 0:0.9 
-1 0:1.3 0:0.4 0:206 0:30 0:25 0:6 0:3.1 0:1.06 
-1 0:2 0:0.6 0:209 0:48 0:32 0:5.7 0:3 0:1.1 
-1 0:0.9 0:0.2 0:169 0:22 0:18 0:6.1 0:3 0:0.9 
-1 0:0.8 0:0.2 0:145 0:19 0:23 0:6.1 0:3.1 0:1.03 
-1 0:1 0:0.3 0:142 0:27 0:21 0:6.4 0:3.5 0:1.2 
-1 0:0.7 0:0.2 0:135 0:27 0:26 0:6.4 0:3.3 0:1 
-1 0:2.7 0:1 0:160 0:82 0:127 0:5.5 0:3.1 0:1.2 
-1 0:0.6 0:0.2 0:100 0:17 0:148 0:5 0:3.3 0:1.9 
-1 0:0.9 0:0.2 0:116 0:36 0:16 0:6.2 0:3.2 0:1 
-1 0:0.6 0:0.1 0:289 0:38 0:30 0:4.8 0:2 0:0.7 
-1 0:0.9 0:0.2 0:279 0:40 0:46 0:7.3 0:4 0:1.2 
-1 0:0.6 0:0.2 0:159 0:15 0:16 0:7 0:3.5 0:1 
-1 0:0.7 0:0.2 0:189 0:22 0:43 0:7.4 0:3.1 0:0.7 
-1 0:0.8 0:0.2 0:192 0:28 0:35 0:6.9 0:3.4 0:0.9 
-1 0:1.1 0:0.3 0:175 0:20 0:19 0:7.1 0:4.5 0:1.7 
-1 0:0.7 0:0.2 0:164 0:21 0:53 0:4.5 0:1.4 0:0.45 
-1 0:0.6 0:0.1 0:270 0:23 0:42 0:5.1 0:2 0:0.5 
-1 0:0.6 0:0.1 0:137 0:22 0:16 0:4.9 0:1.9 0:0.6 
-1 0:1 0:0.3 0:90 0:18 0:108 0:6.8 0:3.1 0:0.8 
-1 0:1 0:0.3 0:202 0:26 0:13 0:5.3 0:2.6 0:0.9 
-1 0:1.5 0:0.6 0:196 0:61 0:85 0:6.7 0:3.8 0:1.3 
-1 0:0.8 0:0.2 0:182 0:46 0:57 0:7.8 0:4.3 0:1.2 
-1 0:0.5 0:0.1 0:352 0:28 0:51 0:7.9 0:4.2 0:1.1 
-1 0:2 0:1.1 0:226 0:33 0:135 0:6 0:2.7 0:0.8 
-1 0:2.2 0:1 0:310 0:119 0:42 0:7.9 0:4.1 0:1 
-1 0:0.8 0:0.2 0:300 0:57 0:40 0:7.9 0:3.8 0:0.9 
-1 0:0.9 0:0.2 0:190 0:40 0:35 0:7.3 0:4.7 0:1.8 
-1 0:0.7 0:0.2 0:165 0:32 0:30 0:8 0:4 0:1 
-1 0:0.7 0:0.2 0:171 0:31 0:26 0:7 0:3.5 0:1 
-1 0:0.8 0:0.1 0:146 0:17 0:29 0:5.9 0:3.2 0:1.18 
-1 0:1 0:0.3 0:180 0:56 0:111 0:6.8 0:3.9 0:1.85 
-1 0:0.7 0:0.2 0:265 0:30 0:28 0:5.2 0:1.8 0:0.52 
-1 0:0.7 0:0.2 0:165 0:31 0:29 0:6.1 0:3 0:0.96 
-1 0:0.8 0:0.2 0:205 0:31 0:36 0:9.2 0:4.6 0:1 
-1 0:1.1 0:0.3 0:258 0:48 0:40 0:7 0:3.9 0:1.2 
-1 0:0.6 0:0.2 0:180 0:12 0:15 0:5.2 0:2.7 0:1.2 
-1 0:0.7 0:0.1 0:152 0:90 0:21 0:7.1 0:4.2 0:1.4 
-1 0:1 0:0.3 0:195 0:22 0:28 0:5.8 0:2.6 0:0.8 
-1 0:0.8 0:0.2 0:156 0:12 0:15 0:6.8 0:3.7 0:1.1 
-1 0:0.9 0:0.2 0:210 0:35 0:32 0:8 0:3.9 0:0.9 
-1 0:0.8 0:0.2 0:182 0:31 0:34 0:6.4 0:3.8 0:1.4 
-1 0:0.8 0:0.2 0:247 0:55 0:92 0:7.4 0:4.3 0:1.38 
-1 0:0.9 0:0.2 0:348 0:30 0:34 0:8 0:4 0:1 
-1 0:0.8 0:0.2 0:460 0:152 0:231 0:6.5 0:3.2 0:0.9 
-1 0:1.9 0:0.8 0:180 0:22 0:19 0:8.2 0:4.1 0:1 
-1 0:0.9 0:0.2 0:190 0:25 0:20 0:6.4 0:3.6 0:1.2 
-1 0:0.7 0:0.2 0:192 0:18 0:15 0:7.4 0:4.2 0:1.3 
-1 0:1.3 0:0.7 0:316 0:10 0:21 0:6 0:2.1 0:0.5 
-1 0:0.7 0:0.2 0:162 0:12 0:17 0:8.2 0:3.2 0:0.6 
-1 0:1.6 0:0.8 0:230 0:88 0:74 0:8 0:4 0:1 
-1 0:1.3 0:0.6 0:155 0:15 0:20 0:8 0:4 0:1 
-1 0:0.7 0:0.2 0:406 0:24 0:45 0:7.2 0:3.5 0:0.9 
-1 0:0.8 0:0.2 0:114 0:21 0:23 0:7 0:3 0:0.7 
-1 0:0.7 0:0.2 0:153 0:41 0:42 0:4.5 0:2.2 0:0.9 
-1 0:0.7 0:0.2 0:174 0:32 0:14 0:7.8 0:4.2 0:1.1 
-1 0:1.2 0:0.4 0:160 0:20 0:22 0:6.2 0:3 0:0.9 
-1 0:1.1 0:0.5 0:191 0:37 0:41 0:7.7 0:4.3 0:1.2 
-1 0:0.6 0:0.1 0:165 0:22 0:34 0:5.9 0:2.9 0:0.9 
-1 0:1 0:0.3 0:191 0:22 0:31 0:7.8 0:4 0:1 
-1 0:0.5 0:0.1 0:500 0:20 0:34 0:5.9 0:1.6 0:0.37 
-1 0:0.9 0:0.3 0:159 0:24 0:25 0:6.9 0:4.4 0:1.7 
-1 0:1 0:0.3 0:216 0:21 0:24 0:7.3 0:4.4 0:1.5 
-1 0:0.9 0:0.2 0:195 0:40 0:35 0:7.4 0:4.1 0:1.2 
