svm_type c_svc
kernel_type linear
nr_class 2
total_sv 17
rho 5.0540556879037135
label 1 -1
nr_sv 8 9
SV
1 0:0.7 0:0.1 0:187 0:16 0:18 0:6.8 0:3.3 0:0.9 
0.22713974325402653 0:7.3 0:4.1 0:490 0:60 0:68 0:7 0:3.3 0:0.89 
0.062068899859922026 0:1 0:0.4 0:182 0:14 0:20 0:6.8 0:3.4 0:1 
0.37234510445687319 0:1.8 0:0.7 0:208 0:19 0:14 0:7.6 0:4.4 0:1.3 
1 0:0.9 0:0.2 0:154 0:16 0:12 0:7 0:3.5 0:1 
1 0:0.9 0:0.3 0:202 0:14 0:11 0:6.7 0:3.6 0:1.1 
1 0:0.7 0:0.2 0:290 0:53 0:58 0:6.8 0:3.4 0:1 
1 0:0.6 0:0.1 0:210 0:51 0:59 0:5.9 0:2.7 0:0.8 
-1 0:0.9 0:0.3 0:202 0:22 0:19 0:7.4 0:4.1 0:1.2 
-1 0:0.9 0:0.3 0:310 0:61 0:58 0:7 0:3.4 0:0.9 
-0.045953711932255899 0:0.6 0:0.1 0:183 0:91 0:53 0:5.5 0:2.3 0:0.7 
-1 0:1.6 0:0.5 0:165 0:15 0:23 0:7.3 0:3.5 0:0.92 
-0.4287413972418857 0:0.9 0:0.2 0:194 0:52 0:45 0:6 0:3.9 0:1.85 
-1 0:0.7 0:0.2 0:188 0:13 0:21 0:6 0:3.2 0:1.1 
-0.89753412875021743 0:1 0:0.3 0:187 0:19 0:23 0:5.2 0:2.9 0:1.2 
-0.23603893646289803 0:2.6 0:1.2 0:410 0:59 0:57 0:5.6 0:3 0:0.8 
-0.053285573183568857 0:2.6 0:1.2 0:410 0:59 0:57 0:5.6 0:3 0:0.8 
